digraph Tree {
node [shape=box, style="filled, rounded", color="black", fontname="Microsoft YaHei"] ;
edge [fontname="Microsoft YaHei"] ;
0 [label="没有自己的房子 <= 0.5\ngini = 0.48\nsamples = 15\nvalue = [6, 9]\nclass = 借", fillcolor="#bddef6"] ;
1 [label="没有工作 <= 0.5\ngini = 0.444\nsamples = 9\nvalue = [6, 3]\nclass = 不借", fillcolor="#f2c09c"] ;
0 -> 1 [labeldistance=2.5, labelangle=45, headlabel="True"] ;
2 [label="gini = 0.0\nsamples = 6\nvalue = [6, 0]\nclass = 不借", fillcolor="#e58139"] ;
1 -> 2 ;
3 [label="gini = 0.0\nsamples = 3\nvalue = [0, 3]\nclass = 借", fillcolor="#399de5"] ;
1 -> 3 ;
4 [label="gini = 0.0\nsamples = 6\nvalue = [0, 6]\nclass = 借", fillcolor="#399de5"] ;
0 -> 4 [labeldistance=2.5, labelangle=-45, headlabel="False"] ;
}